digraph Tree {
node [shape=box] ;
0 [label="X[8] <= 0.5\ngini = 0.476\nsamples = 712\nvalue = [434, 278]"] ;
1 [label="X[0] <= 1.5\ngini = 0.42\nsamples = 300\nvalue = [90, 210]"] ;
0 -> 1 [labeldistance=2.5, labelangle=45, headlabel="True"] ;
2 [label="X[1] <= 0.5\ngini = 0.206\nsamples = 163\nvalue = [19, 144]"] ;
1 -> 2 ;
3 [label="X[2] <= 3.0\ngini = 0.0976\nsamples = 136\nvalue = [7, 129]"] ;
2 -> 3 ;
4 [label="gini = 0.0\nsamples = 1\nvalue = [1, 0]"] ;
3 -> 4 ;
5 [label="gini = 0.0849\nsamples = 135\nvalue = [6, 129]"] ;
3 -> 5 ;
6 [label="X[2] <= 17.0\ngini = 0.4938\nsamples = 27\nvalue = [12, 15]"] ;
2 -> 6 ;
7 [label="gini = 0.0\nsamples = 11\nvalue = [0, 11]"] ;
6 -> 7 ;
8 [label="gini = 0.375\nsamples = 16\nvalue = [12, 4]"] ;
6 -> 8 ;
9 [label="X[5] <= 23.35\ngini = 0.4993\nsamples = 137\nvalue = [71, 66]"] ;
1 -> 9 ;
10 [label="X[1] <= 0.5\ngini = 0.4592\nsamples = 98\nvalue = [35, 63]"] ;
9 -> 10 ;
11 [label="gini = 0.4772\nsamples = 89\nvalue = [35, 54]"] ;
10 -> 11 ;
12 [label="gini = 0.0\nsamples = 9\nvalue = [0, 9]"] ;
10 -> 12 ;
13 [label="X[4] <= 0.5\ngini = 0.142\nsamples = 39\nvalue = [36, 3]"] ;
9 -> 13 ;
14 [label="gini = 0.0\nsamples = 1\nvalue = [0, 1]"] ;
13 -> 14 ;
15 [label="gini = 0.0997\nsamples = 38\nvalue = [36, 2]"] ;
13 -> 15 ;
16 [label="X[5] <= 26.2687\ngini = 0.2756\nsamples = 412\nvalue = [344, 68]"] ;
0 -> 16 [labeldistance=2.5, labelangle=-45, headlabel="False"] ;
17 [label="X[2] <= 45.5\ngini = 0.193\nsamples = 305\nvalue = [272, 33]"] ;
16 -> 17 ;
18 [label="X[2] <= 44.6962\ngini = 0.2067\nsamples = 282\nvalue = [249, 33]"] ;
17 -> 18 ;
19 [label="gini = 0.2024\nsamples = 280\nvalue = [248, 32]"] ;
18 -> 19 ;
20 [label="gini = 0.5\nsamples = 2\nvalue = [1, 1]"] ;
18 -> 20 ;
21 [label="gini = 0.0\nsamples = 23\nvalue = [23, 0]"] ;
17 -> 21 ;
22 [label="X[5] <= 26.775\ngini = 0.4402\nsamples = 107\nvalue = [72, 35]"] ;
16 -> 22 ;
23 [label="X[2] <= 53.5\ngini = 0.426\nsamples = 13\nvalue = [4, 9]"] ;
22 -> 23 ;
24 [label="gini = 0.18\nsamples = 10\nvalue = [1, 9]"] ;
23 -> 24 ;
25 [label="gini = 0.0\nsamples = 3\nvalue = [3, 0]"] ;
23 -> 25 ;
26 [label="X[5] <= 387.6646\ngini = 0.4002\nsamples = 94\nvalue = [68, 26]"] ;
22 -> 26 ;
27 [label="gini = 0.3856\nsamples = 92\nvalue = [68, 24]"] ;
26 -> 27 ;
28 [label="gini = 0.0\nsamples = 2\nvalue = [0, 2]"] ;
26 -> 28 ;
}